b0 1.52
kernel_type linear
kgamma 0.166666666666667
degree 3
coef0 0
alpha0 0
total_sv 0
SV
0  0:0.40000001  1:0.46000001  2:0.47999999  3:0.5  4:0.41999999  5:0.34999999  6:0.44 
0  0:0.28  1:0.38  2:0.47999999  3:0.5  4:0.5  5:0.33000001  6:0.41999999 
0  0:0.25  1:0.37  2:0.47999999  3:0.5  4:0.41  5:0.33000001  6:0.41999999 
0  0:0.51999998  1:0.36000001  2:0.47999999  3:0.5  4:0.41  5:0.28  6:0.38 
0  0:0.30000001  1:0.44999999  2:0.47999999  3:0.5  4:0.36000001  5:0.20999999  6:0.31999999 
0  0:0.23  1:0.40000001  2:0.47999999  3:0.5  4:0.38999999  5:0.28  6:0.38 
0  0:0.23  1:0.34  2:0.47999999  3:0.5  4:0.43000001  5:0.25999999  6:0.37 
0  0:0.36000001  1:0.41  2:0.47999999  3:0.5  4:0.47999999  5:0.47  6:0.54000002 
0  0:0.23  1:0.31999999  2:0.47999999  3:0.5  4:0.55000001  5:0.25  6:0.34999999 
0  0:0.36000001  1:0.54000002  2:0.47999999  3:0.5  4:0.41  5:0.38  6:0.46000001 
0  0:0.43000001  1:0.38999999  2:0.47999999  3:0.5  4:0.47  5:0.31  6:0.41 
0  0:0.41  1:0.43000001  2:0.47999999  3:0.5  4:0.44999999  5:0.31  6:0.41 
0  0:0.38999999  1:0.31  2:0.47999999  3:0.5  4:0.38  5:0.34  6:0.43000001 
0  0:0.17  1:0.38999999  2:0.47999999  3:0.5  4:0.52999997  5:0.30000001  6:0.38999999 
0  0:0.41  1:0.43000001  2:0.47999999  3:0.5  4:0.5  5:0.23999999  6:0.25 
0  0:0.20999999  1:0.50999999  2:0.47999999  3:0.5  4:0.5  5:0.31999999  6:0.41 
0  0:0.34  1:0.50999999  2:0.47999999  3:0.5  4:0.44  5:0.37  6:0.46000001 
0  0:0.23  1:0.33000001  2:0.47999999  3:0.5  4:0.43000001  5:0.33000001  6:0.43000001 
0  0:0.23999999  1:0.34  2:0.47999999  3:0.5  4:0.38  5:0.30000001  6:0.40000001 
0  0:0.40000001  1:0.28999999  2:0.47999999  3:0.5  4:0.41999999  5:0.34999999  6:0.44 
0  0:0.33000001  1:0.44999999  2:0.47999999  3:0.5  4:0.51999998  5:0.31999999  6:0.41 
0  0:0.25  1:0.40000001  2:0.47999999  3:0.5  4:0.47  5:0.33000001  6:0.41999999 
0  0:0.38  1:0.46000001  2:0.47999999  3:0.5  4:0.47999999  5:0.22  6:0.28999999 
0  0:0.50999999  1:0.5  2:0.47999999  3:0.5  4:0.46000001  5:0.31999999  6:0.34999999 
0  0:0.41  1:0.47999999  2:0.47999999  3:0.5  4:0.50999999  5:0.44  6:0.50999999 
0  0:0.38999999  1:0.31999999  2:0.47999999  3:0.5  4:0.46000001  5:0.23999999  6:0.34999999 
0  0:0.60000002  1:0.46000001  2:0.47999999  3:0.5  4:0.44999999  5:0.81  6:0.82999998 
0  0:0.34999999  1:0.50999999  2:0.47999999  3:0.5  4:0.61000001  5:0.70999998  6:0.74000001 
0  0:0.30000001  1:0.50999999  2:0.47999999  3:0.5  4:0.41999999  5:0.61000001  6:0.34 
0  0:0.63  1:0.47  2:0.47999999  3:0.5  4:0.50999999  5:0.81999999  6:0.83999997 
0  0:0.54000002  1:0.56999999  2:0.47999999  3:0.5  4:0.56  5:0.81  6:0.82999998 
0  0:0.61000001  1:0.60000002  2:0.47999999  3:0.5  4:0.44  5:0.38999999  6:0.38 
0  0:0.63  1:0.86000001  2:0.47999999  3:0.5  4:0.38999999  5:0.47  6:0.34 
0  0:0.69  1:0.58999997  2:0.47999999  3:0.5  4:0.46000001  5:0.44  6:0.51999998 
0  0:0.64999998  1:0.56999999  2:0.47999999  3:0.5  4:0.47  5:0.47  6:0.50999999 
0  0:0.67000002  1:0.69999999  2:0.47999999  3:0.5  4:0.46000001  5:0.44999999  6:0.33000001 
0  0:0.66000003  1:0.47999999  2:0.47999999  3:0.5  4:0.54000002  5:0.69999999  6:0.74000001 
0  0:0.66000003  1:0.49000001  2:1  3:0.5  4:0.54000002  5:0.56  6:0.36000001 
0  0:0.75  1:0.55000001  2:1  3:1  4:0.40000001  5:0.47  6:0.30000001 
